digraph Tree {
node [shape=box] ;
0 [label="X[4] <= 0.5\nmse = 0.301\nsamples = 746\nvalue = [[0.314]\n[0.051]\n[0.008]]"] ;
1 [label="X[8] <= 5.5\nmse = 0.157\nsamples = 678\nvalue = [[0.223]\n[0.034]\n[0.006]]"] ;
0 -> 1 [labeldistance=2.5, labelangle=45, headlabel="True"] ;
2 [label="X[5] <= 0.5\nmse = 0.115\nsamples = 658\nvalue = [[0.185]\n[0.027]\n[0.002]]"] ;
1 -> 2 ;
3 [label="X[3] <= 0.5\nmse = 0.104\nsamples = 637\nvalue = [[0.163]\n[0.027]\n[0.0]]"] ;
2 -> 3 ;
4 [label="X[2] <= 0.5\nmse = 0.061\nsamples = 479\nvalue = [[0.104]\n[0.006]\n[0.0]]"] ;
3 -> 4 ;
5 [label="X[16] <= 1.5\nmse = 0.027\nsamples = 341\nvalue = [[0.073]\n[0.0]\n[0.0]]"] ;
4 -> 5 ;
6 [label="X[8] <= 2.5\nmse = 0.032\nsamples = 253\nvalue = [[0.087]\n[0.0]\n[0.0]]"] ;
5 -> 6 ;
7 [label="X[14] <= 2.5\nmse = 0.022\nsamples = 129\nvalue = [[0.07]\n[0.0]\n[0.0]]"] ;
6 -> 7 ;
8 [label="X[14] <= 1.5\nmse = 0.014\nsamples = 47\nvalue = [[0.043]\n[0.0]\n[0.0]]"] ;
7 -> 8 ;
9 [label="X[8] <= 1.5\nmse = 0.03\nsamples = 10\nvalue = [[0.1]\n[0.0]\n[0.0]]"] ;
8 -> 9 ;
10 [label="mse = 0.0\nsamples = 6\nvalue = [[0.0]\n[0.0]\n[0.0]]"] ;
9 -> 10 ;
11 [label="mse = 0.062\nsamples = 4\nvalue = [[0.25]\n[0.0]\n[0.0]]"] ;
9 -> 11 ;
12 [label="X[10] <= 0.5\nmse = 0.009\nsamples = 37\nvalue = [[0.027]\n[0.0]\n[0.0]]"] ;
8 -> 12 ;
13 [label="mse = 0.0\nsamples = 20\nvalue = [[0.0]\n[0.0]\n[0.0]]"] ;
12 -> 13 ;
14 [label="X[13] <= 1.5\nmse = 0.018\nsamples = 17\nvalue = [[0.059]\n[0.0]\n[0.0]]"] ;
12 -> 14 ;
15 [label="mse = 0.02\nsamples = 16\nvalue = [[0.062]\n[0.0]\n[0.0]]"] ;
14 -> 15 ;
16 [label="mse = 0.0\nsamples = 1\nvalue = [[0.0]\n[0.0]\n[0.0]]"] ;
14 -> 16 ;
17 [label="X[11] <= 0.5\nmse = 0.026\nsamples = 82\nvalue = [[0.085]\n[0.0]\n[0.0]]"] ;
7 -> 17 ;
18 [label="X[17] <= 1.5\nmse = 0.028\nsamples = 76\nvalue = [[0.092]\n[0.0]\n[0.0]]"] ;
17 -> 18 ;
19 [label="mse = 0.0\nsamples = 2\nvalue = [[0.0]\n[0.0]\n[0.0]]"] ;
18 -> 19 ;
20 [label="X[13] <= 1.5\nmse = 0.029\nsamples = 74\nvalue = [[0.095]\n[0.0]\n[0.0]]"] ;
18 -> 20 ;
21 [label="X[7] <= 0.5\nmse = 0.029\nsamples = 72\nvalue = [[0.097]\n[0.0]\n[0.0]]"] ;
20 -> 21 ;
22 [label="mse = 0.03\nsamples = 61\nvalue = [[0.098]\n[0.0]\n[0.0]]"] ;
21 -> 22 ;
23 [label="mse = 0.028\nsamples = 11\nvalue = [[0.091]\n[0.0]\n[0.0]]"] ;
21 -> 23 ;
24 [label="mse = 0.0\nsamples = 2\nvalue = [[0.0]\n[0.0]\n[0.0]]"] ;
20 -> 24 ;
25 [label="mse = 0.0\nsamples = 6\nvalue = [[0.0]\n[0.0]\n[0.0]]"] ;
17 -> 25 ;
26 [label="X[14] <= 1.5\nmse = 0.042\nsamples = 124\nvalue = [[0.105]\n[0.0]\n[0.0]]"] ;
6 -> 26 ;
27 [label="mse = 0.0\nsamples = 8\nvalue = [[0.0]\n[0.0]\n[0.0]]"] ;
26 -> 27 ;
28 [label="X[8] <= 4.5\nmse = 0.045\nsamples = 116\nvalue = [[0.112]\n[0.0]\n[0.0]]"] ;
26 -> 28 ;
29 [label="X[17] <= 1.5\nmse = 0.046\nsamples = 111\nvalue = [[0.117]\n[0.0]\n[0.0]]"] ;
28 -> 29 ;
30 [label="X[13] <= 1.5\nmse = 0.053\nsamples = 50\nvalue = [[0.14]\n[0.0]\n[0.0]]"] ;
29 -> 30 ;
31 [label="X[14] <= 2.5\nmse = 0.049\nsamples = 49\nvalue = [[0.122]\n[0.0]\n[0.0]]"] ;
30 -> 31 ;
32 [label="X[8] <= 3.5\nmse = 0.029\nsamples = 31\nvalue = [[0.097]\n[0.0]\n[0.0]]"] ;
31 -> 32 ;
33 [label="mse = 0.022\nsamples = 28\nvalue = [[0.071]\n[0.0]\n[0.0]]"] ;
32 -> 33 ;
34 [label="mse = 0.074\nsamples = 3\nvalue = [[0.333]\n[0.0]\n[0.0]]"] ;
32 -> 34 ;
35 [label="X[8] <= 3.5\nmse = 0.083\nsamples = 18\nvalue = [[0.167]\n[0.0]\n[0.0]]"] ;
31 -> 35 ;
36 [label="mse = 0.098\nsamples = 15\nvalue = [[0.2]\n[0.0]\n[0.0]]"] ;
35 -> 36 ;
37 [label="mse = 0.0\nsamples = 3\nvalue = [[0.0]\n[0.0]\n[0.0]]"] ;
35 -> 37 ;
38 [label="mse = 0.0\nsamples = 1\nvalue = [[1.0]\n[0.0]\n[0.0]]"] ;
30 -> 38 ;
39 [label="X[8] <= 3.5\nmse = 0.04\nsamples = 61\nvalue = [[0.098]\n[0.0]\n[0.0]]"] ;
29 -> 39 ;
40 [label="X[13] <= 1.5\nmse = 0.043\nsamples = 57\nvalue = [[0.105]\n[0.0]\n[0.0]]"] ;
39 -> 40 ;
41 [label="X[14] <= 2.5\nmse = 0.046\nsamples = 53\nvalue = [[0.113]\n[0.0]\n[0.0]]"] ;
40 -> 41 ;
42 [label="mse = 0.05\nsamples = 37\nvalue = [[0.108]\n[0.0]\n[0.0]]"] ;
41 -> 42 ;
43 [label="mse = 0.036\nsamples = 16\nvalue = [[0.125]\n[0.0]\n[0.0]]"] ;
41 -> 43 ;
44 [label="mse = 0.0\nsamples = 4\nvalue = [[0.0]\n[0.0]\n[0.0]]"] ;
40 -> 44 ;
45 [label="mse = 0.0\nsamples = 4\nvalue = [[0.0]\n[0.0]\n[0.0]]"] ;
39 -> 45 ;
46 [label="mse = 0.0\nsamples = 5\nvalue = [[0.0]\n[0.0]\n[0.0]]"] ;
28 -> 46 ;
47 [label="X[17] <= 1.5\nmse = 0.011\nsamples = 88\nvalue = [[0.034]\n[0.0]\n[0.0]]"] ;
5 -> 47 ;
48 [label="mse = 0.0\nsamples = 29\nvalue = [[0.0]\n[0.0]\n[0.0]]"] ;
47 -> 48 ;
49 [label="X[10] <= 0.5\nmse = 0.016\nsamples = 59\nvalue = [[0.051]\n[0.0]\n[0.0]]"] ;
47 -> 49 ;
50 [label="X[14] <= 1.5\nmse = 0.013\nsamples = 49\nvalue = [[0.041]\n[0.0]\n[0.0]]"] ;
49 -> 50 ;
51 [label="X[8] <= 2.5\nmse = 0.033\nsamples = 9\nvalue = [[0.111]\n[0.0]\n[0.0]]"] ;
50 -> 51 ;
52 [label="mse = 0.0\nsamples = 4\nvalue = [[0.0]\n[0.0]\n[0.0]]"] ;
51 -> 52 ;
53 [label="X[8] <= 3.5\nmse = 0.053\nsamples = 5\nvalue = [[0.2]\n[0.0]\n[0.0]]"] ;
51 -> 53 ;
54 [label="X[15] <= 1.5\nmse = 0.062\nsamples = 4\nvalue = [[0.25]\n[0.0]\n[0.0]]"] ;
53 -> 54 ;
55 [label="mse = 0.074\nsamples = 3\nvalue = [[0.333]\n[0.0]\n[0.0]]"] ;
54 -> 55 ;
56 [label="mse = 0.0\nsamples = 1\nvalue = [[0.0]\n[0.0]\n[0.0]]"] ;
54 -> 56 ;
57 [label="mse = 0.0\nsamples = 1\nvalue = [[0.0]\n[0.0]\n[0.0]]"] ;
53 -> 57 ;
58 [label="X[14] <= 2.5\nmse = 0.008\nsamples = 40\nvalue = [[0.025]\n[0.0]\n[0.0]]"] ;
50 -> 58 ;
59 [label="mse = 0.0\nsamples = 26\nvalue = [[0.0]\n[0.0]\n[0.0]]"] ;
58 -> 59 ;
60 [label="X[8] <= 2.5\nmse = 0.022\nsamples = 14\nvalue = [[0.071]\n[0.0]\n[0.0]]"] ;
58 -> 60 ;
61 [label="mse = 0.0\nsamples = 3\nvalue = [[0.0]\n[0.0]\n[0.0]]"] ;
60 -> 61 ;
62 [label="X[8] <= 3.5\nmse = 0.028\nsamples = 11\nvalue = [[0.091]\n[0.0]\n[0.0]]"] ;
60 -> 62 ;
63 [label="mse = 0.033\nsamples = 9\nvalue = [[0.111]\n[0.0]\n[0.0]]"] ;
62 -> 63 ;
64 [label="mse = 0.0\nsamples = 2\nvalue = [[0.0]\n[0.0]\n[0.0]]"] ;
62 -> 64 ;
65 [label="X[14] <= 1.5\nmse = 0.03\nsamples = 10\nvalue = [[0.1]\n[0.0]\n[0.0]]"] ;
49 -> 65 ;
66 [label="mse = 0.0\nsamples = 3\nvalue = [[0.0]\n[0.0]\n[0.0]]"] ;
65 -> 66 ;
67 [label="X[13] <= 1.5\nmse = 0.041\nsamples = 7\nvalue = [[0.143]\n[0.0]\n[0.0]]"] ;
65 -> 67 ;
68 [label="mse = 0.046\nsamples = 6\nvalue = [[0.167]\n[0.0]\n[0.0]]"] ;
67 -> 68 ;
69 [label="mse = 0.0\nsamples = 1\nvalue = [[0.0]\n[0.0]\n[0.0]]"] ;
67 -> 69 ;
70 [label="X[11] <= 0.5\nmse = 0.143\nsamples = 138\nvalue = [[0.181]\n[0.022]\n[0.0]]"] ;
4 -> 70 ;
71 [label="X[14] <= 1.5\nmse = 0.143\nsamples = 127\nvalue = [[0.165]\n[0.024]\n[0.0]]"] ;
70 -> 71 ;
72 [label="mse = 0.0\nsamples = 6\nvalue = [[0.0]\n[0.0]\n[0.0]]"] ;
71 -> 72 ;
73 [label="X[8] <= 3.5\nmse = 0.15\nsamples = 121\nvalue = [[0.174]\n[0.025]\n[0.0]]"] ;
71 -> 73 ;
74 [label="X[16] <= 1.5\nmse = 0.166\nsamples = 107\nvalue = [[0.187]\n[0.028]\n[0.0]]"] ;
73 -> 74 ;
75 [label="X[13] <= 1.5\nmse = 0.172\nsamples = 90\nvalue = [[0.167]\n[0.022]\n[0.0]]"] ;
74 -> 75 ;
76 [label="X[8] <= 2.5\nmse = 0.192\nsamples = 79\nvalue = [[0.177]\n[0.025]\n[0.0]]"] ;
75 -> 76 ;
77 [label="X[14] <= 2.5\nmse = 0.225\nsamples = 50\nvalue = [[0.16]\n[0.02]\n[0.0]]"] ;
76 -> 77 ;
78 [label="mse = 0.199\nsamples = 14\nvalue = [[0.214]\n[0.0]\n[0.0]]"] ;
77 -> 78 ;
79 [label="mse = 0.234\nsamples = 36\nvalue = [[0.139]\n[0.028]\n[0.0]]"] ;
77 -> 79 ;
80 [label="X[14] <= 2.5\nmse = 0.135\nsamples = 29\nvalue = [[0.207]\n[0.034]\n[0.0]]"] ;
76 -> 80 ;
81 [label="mse = 0.03\nsamples = 10\nvalue = [[0.1]\n[0.0]\n[0.0]]"] ;
80 -> 81 ;
82 [label="mse = 0.187\nsamples = 19\nvalue = [[0.263]\n[0.053]\n[0.0]]"] ;
80 -> 82 ;
83 [label="X[8] <= 2.5\nmse = 0.028\nsamples = 11\nvalue = [[0.091]\n[0.0]\n[0.0]]"] ;
75 -> 83 ;
84 [label="mse = 0.0\nsamples = 2\nvalue = [[0.0]\n[0.0]\n[0.0]]"] ;
83 -> 84 ;
85 [label="X[15] <= 1.5\nmse = 0.033\nsamples = 9\nvalue = [[0.111]\n[0.0]\n[0.0]]"] ;
83 -> 85 ;
86 [label="X[14] <= 2.5\nmse = 0.041\nsamples = 7\nvalue = [[0.143]\n[0.0]\n[0.0]]"] ;
85 -> 86 ;
87 [label="mse = 0.046\nsamples = 6\nvalue = [[0.167]\n[0.0]\n[0.0]]"] ;
86 -> 87 ;
88 [label="mse = 0.0\nsamples = 1\nvalue = [[0.0]\n[0.0]\n[0.0]]"] ;
86 -> 88 ;
89 [label="mse = 0.0\nsamples = 2\nvalue = [[0.0]\n[0.0]\n[0.0]]"] ;
85 -> 89 ;
90 [label="X[14] <= 2.5\nmse = 0.127\nsamples = 17\nvalue = [[0.294]\n[0.059]\n[0.0]]"] ;
74 -> 90 ;
91 [label="X[15] <= 2.0\nmse = 0.059\nsamples = 13\nvalue = [[0.231]\n[0.0]\n[0.0]]"] ;
90 -> 91 ;
92 [label="X[8] <= 2.5\nmse = 0.05\nsamples = 11\nvalue = [[0.182]\n[0.0]\n[0.0]]"] ;
91 -> 92 ;
93 [label="mse = 0.062\nsamples = 4\nvalue = [[0.25]\n[0.0]\n[0.0]]"] ;
92 -> 93 ;
94 [label="mse = 0.041\nsamples = 7\nvalue = [[0.143]\n[0.0]\n[0.0]]"] ;
92 -> 94 ;
95 [label="mse = 0.083\nsamples = 2\nvalue = [[0.5]\n[0.0]\n[0.0]]"] ;
91 -> 95 ;
96 [label="mse = 0.312\nsamples = 4\nvalue = [[0.5]\n[0.25]\n[0.0]]"] ;
90 -> 96 ;
97 [label="X[16] <= 1.5\nmse = 0.022\nsamples = 14\nvalue = [[0.071]\n[0.0]\n[0.0]]"] ;
73 -> 97 ;
98 [label="X[14] <= 2.5\nmse = 0.062\nsamples = 4\nvalue = [[0.25]\n[0.0]\n[0.0]]"] ;
97 -> 98 ;
99 [label="mse = 0.0\nsamples = 1\nvalue = [[1.0]\n[0.0]\n[0.0]]"] ;
98 -> 99 ;
100 [label="mse = 0.0\nsamples = 3\nvalue = [[0.0]\n[0.0]\n[0.0]]"] ;
98 -> 100 ;
101 [label="mse = 0.0\nsamples = 10\nvalue = [[0.0]\n[0.0]\n[0.0]]"] ;
97 -> 101 ;
102 [label="X[8] <= 2.5\nmse = 0.138\nsamples = 11\nvalue = [[0.364]\n[0.0]\n[0.0]]"] ;
70 -> 102 ;
103 [label="X[14] <= 2.5\nmse = 0.177\nsamples = 7\nvalue = [[0.571]\n[0.0]\n[0.0]]"] ;
102 -> 103 ;
104 [label="X[13] <= 1.5\nmse = 0.222\nsamples = 3\nvalue = [[1.0]\n[0.0]\n[0.0]]"] ;
103 -> 104 ;
105 [label="X[16] <= 1.5\nmse = 0.083\nsamples = 2\nvalue = [[1.5]\n[0.0]\n[0.0]]"] ;
104 -> 105 ;
106 [label="mse = 0.0\nsamples = 1\nvalue = [[2.0]\n[0.0]\n[0.0]]"] ;
105 -> 106 ;
107 [label="mse = 0.0\nsamples = 1\nvalue = [[1.0]\n[0.0]\n[0.0]]"] ;
105 -> 107 ;
108 [label="mse = 0.0\nsamples = 1\nvalue = [[0.0]\n[0.0]\n[0.0]]"] ;
104 -> 108 ;
109 [label="X[16] <= 1.5\nmse = 0.062\nsamples = 4\nvalue = [[0.25]\n[0.0]\n[0.0]]"] ;
103 -> 109 ;
110 [label="mse = 0.074\nsamples = 3\nvalue = [[0.333]\n[0.0]\n[0.0]]"] ;
109 -> 110 ;
111 [label="mse = 0.0\nsamples = 1\nvalue = [[0.0]\n[0.0]\n[0.0]]"] ;
109 -> 111 ;
112 [label="mse = 0.0\nsamples = 4\nvalue = [[0.0]\n[0.0]\n[0.0]]"] ;
102 -> 112 ;
113 [label="X[13] <= 1.5\nmse = 0.22\nsamples = 158\nvalue = [[0.342]\n[0.089]\n[0.0]]"] ;
3 -> 113 ;
114 [label="X[8] <= 2.5\nmse = 0.216\nsamples = 132\nvalue = [[0.303]\n[0.098]\n[0.0]]"] ;
113 -> 114 ;
115 [label="X[16] <= 1.5\nmse = 0.078\nsamples = 37\nvalue = [[0.189]\n[0.027]\n[0.0]]"] ;
114 -> 115 ;
116 [label="X[10] <= 0.5\nmse = 0.098\nsamples = 28\nvalue = [[0.25]\n[0.036]\n[0.0]]"] ;
115 -> 116 ;
117 [label="mse = 0.213\nsamples = 5\nvalue = [[0.6]\n[0.0]\n[0.0]]"] ;
116 -> 117 ;
118 [label="X[14] <= 2.5\nmse = 0.062\nsamples = 23\nvalue = [[0.174]\n[0.043]\n[0.0]]"] ;
116 -> 118 ;
119 [label="mse = 0.053\nsamples = 5\nvalue = [[0.2]\n[0.0]\n[0.0]]"] ;
118 -> 119 ;
120 [label="mse = 0.064\nsamples = 18\nvalue = [[0.167]\n[0.056]\n[0.0]]"] ;
118 -> 120 ;
121 [label="mse = 0.0\nsamples = 9\nvalue = [[0.0]\n[0.0]\n[0.0]]"] ;
115 -> 121 ;
122 [label="X[8] <= 4.5\nmse = 0.267\nsamples = 95\nvalue = [[0.347]\n[0.126]\n[0.0]]"] ;
114 -> 122 ;
123 [label="X[14] <= 1.5\nmse = 0.284\nsamples = 88\nvalue = [[0.375]\n[0.136]\n[0.0]]"] ;
122 -> 123 ;
124 [label="mse = 0.0\nsamples = 5\nvalue = [[0.0]\n[0.0]\n[0.0]]"] ;
123 -> 124 ;
125 [label="X[11] <= 0.5\nmse = 0.298\nsamples = 83\nvalue = [[0.398]\n[0.145]\n[0.0]]"] ;
123 -> 125 ;
126 [label="X[16] <= 1.5\nmse = 0.235\nsamples = 45\nvalue = [[0.422]\n[0.067]\n[0.0]]"] ;
125 -> 126 ;
127 [label="X[8] <= 3.5\nmse = 0.286\nsamples = 24\nvalue = [[0.542]\n[0.125]\n[0.0]]"] ;
126 -> 127 ;
128 [label="X[14] <= 2.5\nmse = 0.348\nsamples = 18\nvalue = [[0.611]\n[0.167]\n[0.0]]"] ;
127 -> 128 ;
129 [label="mse = 0.5\nsamples = 4\nvalue = [[1.0]\n[0.0]\n[0.0]]"] ;
128 -> 129 ;
130 [label="mse = 0.282\nsamples = 14\nvalue = [[0.5]\n[0.214]\n[0.0]]"] ;
128 -> 130 ;
131 [label="X[14] <= 2.5\nmse = 0.074\nsamples = 6\nvalue = [[0.333]\n[0.0]\n[0.0]]"] ;
127 -> 131 ;
132 [label="mse = 0.0\nsamples = 2\nvalue = [[0.0]\n[0.0]\n[0.0]]"] ;
131 -> 132 ;
133 [label="mse = 0.083\nsamples = 4\nvalue = [[0.5]\n[0.0]\n[0.0]]"] ;
131 -> 133 ;
134 [label="X[14] <= 2.5\nmse = 0.163\nsamples = 21\nvalue = [[0.286]\n[0.0]\n[0.0]]"] ;
126 -> 134 ;
135 [label="X[12] <= 0.5\nmse = 0.283\nsamples = 10\nvalue = [[0.5]\n[0.0]\n[0.0]]"] ;
134 -> 135 ;
136 [label="X[8] <= 3.5\nmse = 0.305\nsamples = 9\nvalue = [[0.556]\n[0.0]\n[0.0]]"] ;
135 -> 136 ;
137 [label="mse = 0.367\nsamples = 7\nvalue = [[0.571]\n[0.0]\n[0.0]]"] ;
136 -> 137 ;
138 [label="mse = 0.083\nsamples = 2\nvalue = [[0.5]\n[0.0]\n[0.0]]"] ;
136 -> 138 ;
139 [label="mse = 0.0\nsamples = 1\nvalue = [[0.0]\n[0.0]\n[0.0]]"] ;
135 -> 139 ;
140 [label="X[8] <= 3.5\nmse = 0.028\nsamples = 11\nvalue = [[0.091]\n[0.0]\n[0.0]]"] ;
134 -> 140 ;
141 [label="mse = 0.0\nsamples = 4\nvalue = [[0.0]\n[0.0]\n[0.0]]"] ;
140 -> 141 ;
142 [label="mse = 0.041\nsamples = 7\nvalue = [[0.143]\n[0.0]\n[0.0]]"] ;
140 -> 142 ;
143 [label="X[16] <= 1.5\nmse = 0.366\nsamples = 38\nvalue = [[0.368]\n[0.237]\n[0.0]]"] ;
125 -> 143 ;
144 [label="X[8] <= 3.5\nmse = 0.152\nsamples = 18\nvalue = [[0.222]\n[0.222]\n[0.0]]"] ;
143 -> 144 ;
145 [label="mse = 0.08\nsamples = 5\nvalue = [[0.4]\n[0.0]\n[0.0]]"] ;
144 -> 145 ;
146 [label="X[14] <= 2.5\nmse = 0.166\nsamples = 13\nvalue = [[0.154]\n[0.308]\n[0.0]]"] ;
144 -> 146 ;
147 [label="mse = 0.0\nsamples = 3\nvalue = [[0.0]\n[0.0]\n[0.0]]"] ;
146 -> 147 ;
148 [label="mse = 0.2\nsamples = 10\nvalue = [[0.2]\n[0.4]\n[0.0]]"] ;
146 -> 148 ;
149 [label="X[8] <= 3.5\nmse = 0.546\nsamples = 20\nvalue = [[0.5]\n[0.25]\n[0.0]]"] ;
143 -> 149 ;
150 [label="X[14] <= 2.5\nmse = 0.625\nsamples = 4\nvalue = [[0.25]\n[0.75]\n[0.0]]"] ;
149 -> 150 ;
151 [label="mse = 0.75\nsamples = 2\nvalue = [[0.0]\n[1.5]\n[0.0]]"] ;
150 -> 151 ;
152 [label="mse = 0.083\nsamples = 2\nvalue = [[0.5]\n[0.0]\n[0.0]]"] ;
150 -> 152 ;
153 [label="X[14] <= 2.5\nmse = 0.493\nsamples = 16\nvalue = [[0.562]\n[0.125]\n[0.0]]"] ;
149 -> 153 ;
154 [label="mse = 0.527\nsamples = 9\nvalue = [[0.556]\n[0.0]\n[0.0]]"] ;
153 -> 154 ;
155 [label="mse = 0.435\nsamples = 7\nvalue = [[0.571]\n[0.286]\n[0.0]]"] ;
153 -> 155 ;
156 [label="mse = 0.0\nsamples = 7\nvalue = [[0.0]\n[0.0]\n[0.0]]"] ;
122 -> 156 ;
157 [label="X[16] <= 1.5\nmse = 0.223\nsamples = 26\nvalue = [[0.538]\n[0.038]\n[0.0]]"] ;
113 -> 157 ;
158 [label="X[8] <= 3.5\nmse = 0.363\nsamples = 10\nvalue = [[0.9]\n[0.0]\n[0.0]]"] ;
157 -> 158 ;
159 [label="X[12] <= 0.5\nmse = 0.053\nsamples = 5\nvalue = [[0.2]\n[0.0]\n[0.0]]"] ;
158 -> 159 ;
160 [label="mse = 0.0\nsamples = 4\nvalue = [[0.0]\n[0.0]\n[0.0]]"] ;
159 -> 160 ;
161 [label="mse = 0.0\nsamples = 1\nvalue = [[1.0]\n[0.0]\n[0.0]]"] ;
159 -> 161 ;
162 [label="X[15] <= 1.5\nmse = 0.347\nsamples = 5\nvalue = [[1.6]\n[0.0]\n[0.0]]"] ;
158 -> 162 ;
163 [label="X[12] <= 0.5\nmse = 0.074\nsamples = 3\nvalue = [[2.333]\n[0.0]\n[0.0]]"] ;
162 -> 163 ;
164 [label="mse = 0.083\nsamples = 2\nvalue = [[2.5]\n[0.0]\n[0.0]]"] ;
163 -> 164 ;
165 [label="mse = 0.0\nsamples = 1\nvalue = [[2.0]\n[0.0]\n[0.0]]"] ;
163 -> 165 ;
166 [label="X[15] <= 2.5\nmse = 0.083\nsamples = 2\nvalue = [[0.5]\n[0.0]\n[0.0]]"] ;
162 -> 166 ;
167 [label="mse = 0.0\nsamples = 1\nvalue = [[0.0]\n[0.0]\n[0.0]]"] ;
166 -> 167 ;
168 [label="mse = 0.0\nsamples = 1\nvalue = [[1.0]\n[0.0]\n[0.0]]"] ;
166 -> 168 ;
169 [label="X[11] <= 0.5\nmse = 0.091\nsamples = 16\nvalue = [[0.312]\n[0.062]\n[0.0]]"] ;
157 -> 169 ;
170 [label="mse = 0.0\nsamples = 4\nvalue = [[0.0]\n[0.0]\n[0.0]]"] ;
169 -> 170 ;
171 [label="X[14] <= 2.5\nmse = 0.106\nsamples = 12\nvalue = [[0.417]\n[0.083]\n[0.0]]"] ;
169 -> 171 ;
172 [label="X[8] <= 2.5\nmse = 0.12\nsamples = 8\nvalue = [[0.5]\n[0.125]\n[0.0]]"] ;
171 -> 172 ;
173 [label="mse = 0.0\nsamples = 1\nvalue = [[0.0]\n[0.0]\n[0.0]]"] ;
172 -> 173 ;
174 [label="X[8] <= 3.5\nmse = 0.122\nsamples = 7\nvalue = [[0.571]\n[0.143]\n[0.0]]"] ;
172 -> 174 ;
175 [label="mse = 0.0\nsamples = 1\nvalue = [[1.0]\n[0.0]\n[0.0]]"] ;
174 -> 175 ;
176 [label="mse = 0.13\nsamples = 6\nvalue = [[0.5]\n[0.167]\n[0.0]]"] ;
174 -> 176 ;
177 [label="X[8] <= 3.0\nmse = 0.062\nsamples = 4\nvalue = [[0.25]\n[0.0]\n[0.0]]"] ;
171 -> 177 ;
178 [label="X[15] <= 1.5\nmse = 0.083\nsamples = 2\nvalue = [[0.5]\n[0.0]\n[0.0]]"] ;
177 -> 178 ;
179 [label="mse = 0.0\nsamples = 1\nvalue = [[1.0]\n[0.0]\n[0.0]]"] ;
178 -> 179 ;
180 [label="mse = 0.0\nsamples = 1\nvalue = [[0.0]\n[0.0]\n[0.0]]"] ;
178 -> 180 ;
181 [label="mse = 0.0\nsamples = 2\nvalue = [[0.0]\n[0.0]\n[0.0]]"] ;
177 -> 181 ;
182 [label="X[16] <= 1.5\nmse = 0.293\nsamples = 21\nvalue = [[0.857]\n[0.048]\n[0.048]]"] ;
2 -> 182 ;
183 [label="mse = 0.0\nsamples = 3\nvalue = [[0.0]\n[0.0]\n[0.0]]"] ;
182 -> 183 ;
184 [label="X[14] <= 2.5\nmse = 0.294\nsamples = 18\nvalue = [[1.0]\n[0.056]\n[0.056]]"] ;
182 -> 184 ;
185 [label="X[14] <= 1.5\nmse = 0.281\nsamples = 15\nvalue = [[0.867]\n[0.0]\n[0.067]]"] ;
184 -> 185 ;
186 [label="mse = 0.0\nsamples = 1\nvalue = [[0.0]\n[0.0]\n[0.0]]"] ;
185 -> 186 ;
187 [label="X[15] <= 2.0\nmse = 0.282\nsamples = 14\nvalue = [[0.929]\n[0.0]\n[0.071]]"] ;
185 -> 187 ;
188 [label="X[13] <= 1.5\nmse = 0.28\nsamples = 13\nvalue = [[1.0]\n[0.0]\n[0.077]]"] ;
187 -> 188 ;
189 [label="X[18] <= 1.5\nmse = 0.136\nsamples = 7\nvalue = [[0.857]\n[0.0]\n[0.0]]"] ;
188 -> 189 ;
190 [label="X[11] <= 0.5\nmse = 0.157\nsamples = 6\nvalue = [[0.833]\n[0.0]\n[0.0]]"] ;
189 -> 190 ;
191 [label="mse = 0.0\nsamples = 1\nvalue = [[1.0]\n[0.0]\n[0.0]]"] ;
190 -> 191 ;
192 [label="X[8] <= 3.0\nmse = 0.187\nsamples = 5\nvalue = [[0.8]\n[0.0]\n[0.0]]"] ;
190 -> 192 ;
193 [label="mse = 0.0\nsamples = 1\nvalue = [[1.0]\n[0.0]\n[0.0]]"] ;
192 -> 193 ;
194 [label="mse = 0.229\nsamples = 4\nvalue = [[0.75]\n[0.0]\n[0.0]]"] ;
192 -> 194 ;
195 [label="mse = 0.0\nsamples = 1\nvalue = [[1.0]\n[0.0]\n[0.0]]"] ;
189 -> 195 ;
196 [label="X[8] <= 3.5\nmse = 0.426\nsamples = 6\nvalue = [[1.167]\n[0.0]\n[0.167]]"] ;
188 -> 196 ;
197 [label="mse = 0.333\nsamples = 2\nvalue = [[1.0]\n[0.0]\n[0.0]]"] ;
196 -> 197 ;
198 [label="X[11] <= 0.5\nmse = 0.458\nsamples = 4\nvalue = [[1.25]\n[0.0]\n[0.25]]"] ;
196 -> 198 ;
199 [label="mse = 0.0\nsamples = 1\nvalue = [[1.0]\n[0.0]\n[0.0]]"] ;
198 -> 199 ;
200 [label="mse = 0.593\nsamples = 3\nvalue = [[1.333]\n[0.0]\n[0.333]]"] ;
198 -> 200 ;
201 [label="mse = 0.0\nsamples = 1\nvalue = [[0.0]\n[0.0]\n[0.0]]"] ;
187 -> 201 ;
202 [label="X[12] <= 0.5\nmse = 0.148\nsamples = 3\nvalue = [[1.667]\n[0.333]\n[0.0]]"] ;
184 -> 202 ;
203 [label="X[8] <= 3.5\nmse = 0.167\nsamples = 2\nvalue = [[1.5]\n[0.5]\n[0.0]]"] ;
202 -> 203 ;
204 [label="mse = 0.0\nsamples = 1\nvalue = [[2.0]\n[0.0]\n[0.0]]"] ;
203 -> 204 ;
205 [label="mse = 0.0\nsamples = 1\nvalue = [[1.0]\n[1.0]\n[0.0]]"] ;
203 -> 205 ;
206 [label="mse = 0.0\nsamples = 1\nvalue = [[2.0]\n[0.0]\n[0.0]]"] ;
202 -> 206 ;
207 [label="X[11] <= 0.5\nmse = 0.988\nsamples = 20\nvalue = [[1.45]\n[0.25]\n[0.15]]"] ;
1 -> 207 ;
208 [label="X[3] <= 0.5\nmse = 1.315\nsamples = 6\nvalue = [[0.833]\n[0.667]\n[0.5]]"] ;
207 -> 208 ;
209 [label="X[14] <= 2.5\nmse = 0.96\nsamples = 5\nvalue = [[0.8]\n[0.2]\n[0.2]]"] ;
208 -> 209 ;
210 [label="X[18] <= 1.5\nmse = 1.5\nsamples = 2\nvalue = [[2.0]\n[0.5]\n[0.5]]"] ;
209 -> 210 ;
211 [label="mse = 0.0\nsamples = 1\nvalue = [[4.0]\n[0.0]\n[0.0]]"] ;
210 -> 211 ;
212 [label="mse = 0.0\nsamples = 1\nvalue = [[0.0]\n[1.0]\n[1.0]]"] ;
210 -> 212 ;
213 [label="mse = 0.0\nsamples = 3\nvalue = [[0.0]\n[0.0]\n[0.0]]"] ;
209 -> 213 ;
214 [label="mse = 0.0\nsamples = 1\nvalue = [[1.0]\n[3.0]\n[2.0]]"] ;
208 -> 214 ;
215 [label="X[15] <= 2.0\nmse = 0.709\nsamples = 14\nvalue = [[1.714]\n[0.071]\n[0.0]]"] ;
207 -> 215 ;
216 [label="X[5] <= 0.5\nmse = 0.682\nsamples = 13\nvalue = [[1.846]\n[0.077]\n[0.0]]"] ;
215 -> 216 ;
217 [label="X[14] <= 2.5\nmse = 0.643\nsamples = 10\nvalue = [[1.6]\n[0.1]\n[0.0]]"] ;
216 -> 217 ;
218 [label="mse = 0.667\nsamples = 3\nvalue = [[1.0]\n[0.0]\n[0.0]]"] ;
217 -> 218 ;
219 [label="X[13] <= 1.5\nmse = 0.558\nsamples = 7\nvalue = [[1.857]\n[0.143]\n[0.0]]"] ;
217 -> 219 ;
220 [label="mse = 0.75\nsamples = 4\nvalue = [[1.5]\n[0.0]\n[0.0]]"] ;
219 -> 220 ;
221 [label="mse = 0.148\nsamples = 3\nvalue = [[2.333]\n[0.333]\n[0.0]]"] ;
219 -> 221 ;
222 [label="X[13] <= 1.5\nmse = 0.519\nsamples = 3\nvalue = [[2.667]\n[0.0]\n[0.0]]"] ;
216 -> 222 ;
223 [label="mse = 0.0\nsamples = 1\nvalue = [[4.0]\n[0.0]\n[0.0]]"] ;
222 -> 223 ;
224 [label="X[14] <= 2.5\nmse = 0.333\nsamples = 2\nvalue = [[2.0]\n[0.0]\n[0.0]]"] ;
222 -> 224 ;
225 [label="mse = 0.0\nsamples = 1\nvalue = [[1.0]\n[0.0]\n[0.0]]"] ;
224 -> 225 ;
226 [label="mse = 0.0\nsamples = 1\nvalue = [[3.0]\n[0.0]\n[0.0]]"] ;
224 -> 226 ;
227 [label="mse = 0.0\nsamples = 1\nvalue = [[0.0]\n[0.0]\n[0.0]]"] ;
215 -> 227 ;
228 [label="X[15] <= 1.5\nmse = 1.428\nsamples = 68\nvalue = [[1.221]\n[0.221]\n[0.029]]"] ;
0 -> 228 [labeldistance=2.5, labelangle=-45, headlabel="False"] ;
229 [label="X[16] <= 1.5\nmse = 1.087\nsamples = 57\nvalue = [[1.018]\n[0.14]\n[0.0]]"] ;
228 -> 229 ;
230 [label="X[13] <= 1.5\nmse = 2.185\nsamples = 12\nvalue = [[1.667]\n[0.0]\n[0.0]]"] ;
229 -> 230 ;
231 [label="X[10] <= 0.5\nmse = 1.133\nsamples = 10\nvalue = [[1.0]\n[0.0]\n[0.0]]"] ;
230 -> 231 ;
232 [label="mse = 0.0\nsamples = 2\nvalue = [[0.0]\n[0.0]\n[0.0]]"] ;
231 -> 232 ;
233 [label="X[14] <= 2.5\nmse = 1.312\nsamples = 8\nvalue = [[1.25]\n[0.0]\n[0.0]]"] ;
231 -> 233 ;
234 [label="mse = 0.296\nsamples = 3\nvalue = [[0.667]\n[0.0]\n[0.0]]"] ;
233 -> 234 ;
235 [label="X[8] <= 3.5\nmse = 1.813\nsamples = 5\nvalue = [[1.6]\n[0.0]\n[0.0]]"] ;
233 -> 235 ;
236 [label="mse = 2.667\nsamples = 3\nvalue = [[2.0]\n[0.0]\n[0.0]]"] ;
235 -> 236 ;
237 [label="mse = 0.333\nsamples = 2\nvalue = [[1.0]\n[0.0]\n[0.0]]"] ;
235 -> 237 ;
238 [label="X[14] <= 2.5\nmse = 3.0\nsamples = 2\nvalue = [[5.0]\n[0.0]\n[0.0]]"] ;
230 -> 238 ;
239 [label="mse = 0.0\nsamples = 1\nvalue = [[8.0]\n[0.0]\n[0.0]]"] ;
238 -> 239 ;
240 [label="mse = 0.0\nsamples = 1\nvalue = [[2.0]\n[0.0]\n[0.0]]"] ;
238 -> 240 ;
241 [label="X[13] <= 1.5\nmse = 0.744\nsamples = 45\nvalue = [[0.844]\n[0.178]\n[0.0]]"] ;
229 -> 241 ;
242 [label="X[8] <= 3.5\nmse = 0.49\nsamples = 26\nvalue = [[0.692]\n[0.115]\n[0.0]]"] ;
241 -> 242 ;
243 [label="mse = 0.0\nsamples = 6\nvalue = [[0.0]\n[0.0]\n[0.0]]"] ;
242 -> 243 ;
244 [label="X[14] <= 1.5\nmse = 0.572\nsamples = 20\nvalue = [[0.9]\n[0.15]\n[0.0]]"] ;
242 -> 244 ;
245 [label="mse = 0.0\nsamples = 1\nvalue = [[3.0]\n[0.0]\n[0.0]]"] ;
244 -> 245 ;
246 [label="X[12] <= 0.5\nmse = 0.521\nsamples = 19\nvalue = [[0.789]\n[0.158]\n[0.0]]"] ;
244 -> 246 ;
247 [label="X[18] <= 1.5\nmse = 0.524\nsamples = 18\nvalue = [[0.833]\n[0.111]\n[0.0]]"] ;
246 -> 247 ;
248 [label="X[10] <= 0.5\nmse = 0.54\nsamples = 17\nvalue = [[0.882]\n[0.118]\n[0.0]]"] ;
247 -> 248 ;
249 [label="X[14] <= 2.5\nmse = 0.413\nsamples = 11\nvalue = [[0.818]\n[0.0]\n[0.0]]"] ;
248 -> 249 ;
250 [label="X[8] <= 5.0\nmse = 0.354\nsamples = 7\nvalue = [[0.714]\n[0.0]\n[0.0]]"] ;
249 -> 250 ;
251 [label="mse = 0.407\nsamples = 6\nvalue = [[0.667]\n[0.0]\n[0.0]]"] ;
250 -> 251 ;
252 [label="mse = 0.0\nsamples = 1\nvalue = [[1.0]\n[0.0]\n[0.0]]"] ;
250 -> 252 ;
253 [label="mse = 0.5\nsamples = 4\nvalue = [[1.0]\n[0.0]\n[0.0]]"] ;
249 -> 253 ;
254 [label="X[14] <= 2.5\nmse = 0.741\nsamples = 6\nvalue = [[1.0]\n[0.333]\n[0.0]]"] ;
248 -> 254 ;
255 [label="mse = 0.8\nsamples = 5\nvalue = [[1.2]\n[0.4]\n[0.0]]"] ;
254 -> 255 ;
256 [label="mse = 0.0\nsamples = 1\nvalue = [[0.0]\n[0.0]\n[0.0]]"] ;
254 -> 256 ;
257 [label="mse = 0.0\nsamples = 1\nvalue = [[0.0]\n[0.0]\n[0.0]]"] ;
247 -> 257 ;
258 [label="mse = 0.0\nsamples = 1\nvalue = [[0.0]\n[1.0]\n[0.0]]"] ;
246 -> 258 ;
259 [label="X[14] <= 2.5\nmse = 1.064\nsamples = 19\nvalue = [[1.053]\n[0.263]\n[0.0]]"] ;
241 -> 259 ;
260 [label="X[12] <= 0.5\nmse = 0.43\nsamples = 11\nvalue = [[0.727]\n[0.0]\n[0.0]]"] ;
259 -> 260 ;
261 [label="X[8] <= 2.5\nmse = 0.477\nsamples = 9\nvalue = [[0.889]\n[0.0]\n[0.0]]"] ;
260 -> 261 ;
262 [label="mse = 0.0\nsamples = 1\nvalue = [[0.0]\n[0.0]\n[0.0]]"] ;
261 -> 262 ;
263 [label="X[11] <= 0.5\nmse = 0.5\nsamples = 8\nvalue = [[1.0]\n[0.0]\n[0.0]]"] ;
261 -> 263 ;
264 [label="mse = 0.0\nsamples = 2\nvalue = [[1.0]\n[0.0]\n[0.0]]"] ;
263 -> 264 ;
265 [label="X[8] <= 3.5\nmse = 0.667\nsamples = 6\nvalue = [[1.0]\n[0.0]\n[0.0]]"] ;
263 -> 265 ;
266 [label="mse = 0.667\nsamples = 3\nvalue = [[1.0]\n[0.0]\n[0.0]]"] ;
265 -> 266 ;
267 [label="mse = 0.667\nsamples = 3\nvalue = [[1.0]\n[0.0]\n[0.0]]"] ;
265 -> 267 ;
268 [label="mse = 0.0\nsamples = 2\nvalue = [[0.0]\n[0.0]\n[0.0]]"] ;
260 -> 268 ;
269 [label="X[10] <= 0.5\nmse = 1.745\nsamples = 8\nvalue = [[1.5]\n[0.625]\n[0.0]]"] ;
259 -> 269 ;
270 [label="X[8] <= 3.5\nmse = 1.306\nsamples = 7\nvalue = [[1.0]\n[0.714]\n[0.0]]"] ;
269 -> 270 ;
271 [label="mse = 0.0\nsamples = 2\nvalue = [[0.0]\n[0.0]\n[0.0]]"] ;
270 -> 271 ;
272 [label="X[12] <= 0.5\nmse = 1.547\nsamples = 5\nvalue = [[1.4]\n[1.0]\n[0.0]]"] ;
270 -> 272 ;
273 [label="mse = 2.148\nsamples = 3\nvalue = [[1.667]\n[1.333]\n[0.0]]"] ;
272 -> 273 ;
274 [label="X[8] <= 5.5\nmse = 0.417\nsamples = 2\nvalue = [[1.0]\n[0.5]\n[0.0]]"] ;
272 -> 274 ;
275 [label="mse = 0.0\nsamples = 1\nvalue = [[0.0]\n[0.0]\n[0.0]]"] ;
274 -> 275 ;
276 [label="mse = 0.0\nsamples = 1\nvalue = [[2.0]\n[1.0]\n[0.0]]"] ;
274 -> 276 ;
277 [label="mse = 0.0\nsamples = 1\nvalue = [[5.0]\n[0.0]\n[0.0]]"] ;
269 -> 277 ;
278 [label="X[8] <= 4.5\nmse = 2.678\nsamples = 11\nvalue = [[2.273]\n[0.636]\n[0.182]]"] ;
228 -> 278 ;
279 [label="X[14] <= 2.0\nmse = 1.556\nsamples = 3\nvalue = [[4.0]\n[0.0]\n[0.0]]"] ;
278 -> 279 ;
280 [label="mse = 0.0\nsamples = 1\nvalue = [[5.0]\n[0.0]\n[0.0]]"] ;
279 -> 280 ;
281 [label="mse = 2.083\nsamples = 2\nvalue = [[3.5]\n[0.0]\n[0.0]]"] ;
279 -> 281 ;
282 [label="X[14] <= 2.5\nmse = 2.51\nsamples = 8\nvalue = [[1.625]\n[0.875]\n[0.25]]"] ;
278 -> 282 ;
283 [label="X[15] <= 2.5\nmse = 1.067\nsamples = 5\nvalue = [[1.2]\n[0.4]\n[0.0]]"] ;
282 -> 283 ;
284 [label="X[8] <= 5.5\nmse = 1.333\nsamples = 2\nvalue = [[2.0]\n[0.0]\n[0.0]]"] ;
283 -> 284 ;
285 [label="mse = 0.0\nsamples = 1\nvalue = [[0.0]\n[0.0]\n[0.0]]"] ;
284 -> 285 ;
286 [label="mse = 0.0\nsamples = 1\nvalue = [[4.0]\n[0.0]\n[0.0]]"] ;
284 -> 286 ;
287 [label="mse = 0.593\nsamples = 3\nvalue = [[0.667]\n[0.667]\n[0.0]]"] ;
283 -> 287 ;
288 [label="mse = 4.222\nsamples = 3\nvalue = [[2.333]\n[1.667]\n[0.667]]"] ;
282 -> 288 ;
}